svm_type c_svc
kernel_type rbf
gamma 0.0078125
nr_class 2
total_sv 59
rho -31.9823
label 1 -1
probA -2.27772
probB -0.142038
nr_sv 29 30
SV
8192 1:-0.987221 2:-1 3:-0.555556 4:-0.399996 5:-0.555553 6:-0.546665 
8192 1:-0.986018 2:-1 3:-0.777778 4:-0.228573 5:-0.619047 6:-0.417145 
1754.31458643541 1:-0.990385 2:-1 3:-1 4:-0.181818 5:-0.696967 6:-0.690906 
8192 1:-0.962457 2:-1 3:-1 4:-0.790696 5:-0.534887 6:-1 
8192 1:-0.987629 2:-1 3:0.333333 4:-0.399996 5:-1 6:-1 
8192 1:-0.983499 2:-1 3:0.555556 4:-0.437499 5:-0.444447 6:-0.291665 
8192 1:-0.993702 2:-1 3:0.555556 4:-1 5:-0.574467 6:-0.565957 
8192 1:-0.99223 2:-1 3:-0.555556 4:-1 5:-1 6:-1 
8192 1:-0.996688 2:-1 3:-0.777778 4:-0.357138 5:0.111113 6:-0.676191 
2975.124109186738 1:-0.957408 2:-1 3:-0.555556 4:-1 5:0.111113 6:-1 
8192 1:-0.975181 2:-1 3:-0.333333 4:-0.800002 5:-0.25926 6:-0.395556 
8192 1:-0.983169 2:-1 3:-1 4:-1 5:-0.56522 6:-0.70435 
8192 1:-0.97656 2:-1 3:-1 4:-1 5:-0.166667 6:-0.716665 
8192 1:-0.995046 2:-1 3:-1 4:-0.808507 5:-0.00709333 6:-0.855317 
8192 1:-0.993702 2:-1 3:0.555556 4:-1 5:-0.574467 6:-0.565957 
8192 1:-0.980182 2:-1 3:-0.333333 4:-0.608698 5:-0.56522 6:-0.408693 
8192 1:-0.993702 2:-1 3:0.555556 4:-1 5:-0.574467 6:-0.565957 
41.31484438486329 1:-0.993702 2:-0.747093 3:0.555556 4:-1 5:-0.574467 6:-0.565957 
3856.700705167727 1:-0.976937 2:-1 3:-1 4:-0.590905 5:0.21212 6:-0.38182 
8192 1:-0.972844 2:-1 3:-0.111111 4:-1 5:0.176473 6:-0.400003 
5828.149023438889 1:-0.992843 2:-1 3:0.555556 4:0.363636 5:-0.19192 6:0.236361 
53.03472552638077 1:-0.993702 2:-0.747093 3:0.555556 4:-1 5:-0.574467 6:-0.565957 
8192 1:-0.981683 2:-1 3:-0.777778 4:-1 5:-0.39394 6:0.648481 
1776.07083661983 1:-0.993702 2:-0.747093 3:0.555556 4:-1 5:-0.574467 6:-0.565957 
8192 1:-0.981054 2:-1 3:-0.333333 4:-1 5:-0.0196067 6:-0.400003 
8192 1:-0.990122 2:-1 3:0.555556 4:-1 5:-0.574467 6:-0.565957 
8192 1:-0.993253 2:-1 3:-1 4:-0.34146 5:-0.8374 6:-0.00488239 
8192 1:-0.979266 2:-1 3:-0.777778 4:-0.808507 5:-0.29078 6:-0.131913 
3594.842829045286 1:-0.952982 2:-1 3:-1 4:-0.816328 5:-0.727893 6:-0.167348 
-8192 1:-0.993849 2:-1 3:0.777778 4:-0.205884 5:-0.60784 
-8192 1:-0.996035 2:-1 3:0.111111 4:-1 5:-0.696967 6:-0.38182 
-8192 1:-0.996765 2:-1 3:-0.111111 4:-1 5:0.0526333 6:-0.463161 
-8192 1:-0.996957 2:-1 3:0.333333 4:-0.250002 5:-0.72222 6:-0.433336 
-8192 1:-0.99806 2:-1 3:0.555556 4:-1 5:-0.68992 6:-0.841859 
-8192 1:-0.998236 2:-1 3:-0.333333 4:-0.55 5:-0.333333 6:-0.66 
-4881.044172179671 1:-0.998335 2:-1 3:0.777778 4:-1 5:-0.82906 6:-0.825641 
-540.7085806444251 1:-0.998824 2:-1 3:0.555556 4:-1 5:-1 6:-0.690906 
-6886.865578951408 1:-0.99937 2:-1 3:0.555556 4:-1 5:-0.130433 6:-1 
-1759.808764041504 1:-0.999376 2:-1 3:0.333333 4:-0.499995 5:-0.25926 6:-0.62222 
-8192 1:-0.99972 2:-1 3:-0.555556 4:-0.590905 5:-0.39394 6:-0.38182 
-3581.582668859244 1:-0.999825 2:-1 3:-0.333333 4:-0.78049 5:-0.8374 6:-0.668296 
-8192 1:-0.99987 2:-1 3:-0.555556 4:-0.55 5:-0.333333 6:-0.490001 
-5698.001573465396 1:-0.999882 2:-1 3:-0.333333 4:-0.823528 5:-0.477127 6:-0.200001 
-8192 1:-0.999888 2:-1 3:-0.777778 4:-0.653842 5:-0.743587 6:-0.215383 
-672.9674127749652 1:-0.999969 2:-1 3:1 4:0.285714 5:-0.68254 6:-0.352382 
-8192 1:-0.999994 2:-1 3:-1 4:-0.55 5:0.333333 6:-0.66 
-6217.682846794574 1:-0.987331 2:-1 3:1 4:-0.499995 5:0.111113 6:-0.244446 
-8192 1:-0.988321 2:-1 3:-1 4:-0.608698 5:-0.420287 6:-0.70435 
-8192 1:-0.997877 2:-1 3:-0.555556 4:-0.709678 5:-0.569893 6:-0.780646 
-8192 1:-0.999724 2:-1 3:-0.777778 4:-1 5:0.0526333 6:0.789472 
-8192 1:-0.999768 2:-1 3:-0.777778 4:-0.666667 5:-0.753087 6:-1 
-478.8500525319864 1:-0.999777 2:-1 3:-0.777778 4:-1 5:0.0526333 6:0.789472 
-8192 1:-0.999789 2:-1 3:-0.555556 4:-0.437499 5:-1 6:-0.150001 
-8192 1:-0.999792 2:-1 3:-1 4:-1 5:-0.215687 6:-0.599997 
-344.4114050826893 1:-0.999822 2:-1 3:0.777778 4:-1 5:-1 6:0.789472 
-8192 1:-0.999869 2:-1 3:-0.777778 4:-1 5:-0.166667 6:-0.575001 
-8192 1:-0.999879 2:-1 3:-1 4:-1 5:-0.215687 6:-0.599997 
-8192 1:-0.999896 2:-1 3:-1 4:-0.617023 5:-0.574467 6:-0.42128 
-5201.628604479266 1:-0.999918 2:-1 3:-0.777778 4:-1 5:-0.666667 6:-1 
